function [y1] = myNeuralNetworkFunction9classes(x1)
%MYNEURALNETWORKFUNCTION neural network simulation function.
%
% Generated by Neural Network Toolbox function genFunction, 18-Jan-2017 21:06:28.
%
% [y1] = myNeuralNetworkFunction(x1) takes these arguments:
%   x = 14xQ matrix, input #1
% and returns:
%   y = 9xQ matrix, output #1
% where Q is the number of samples.

%#ok<*RPMT0>

% ===== NEURAL NETWORK CONSTANTS =====

% Input 1
x1_step1_xoffset = [50;54.0540540540541;55.1724137931034;59.2592592592593;50.9554140127389;50.6329113924051;56.3380281690141;51.6129032258064;51.2820512820513;50;56.7375886524823;55.5555555555556;55.1724137931034;50];
x1_step1_gain = [0.00444444444444444;0.00448484848484848;0.00449612403100775;0.00453781512605042;0.00445390070921986;0.00445070422535211;0.00450793650793651;0.00446043165467626;0.00445714285714286;0.00444444444444444;0.004512;0.0045;0.00449612403100775;0.00444444444444444];
x1_step1_ymin = -1;

% Layer 1
b1 = [1.5140602315561366709;-1.3406795936470707886;1.7872178164429322056;-1.6364671929052909682;-1.2053173625255761969;1.2581688196525835366;-1.8896920047015750566;1.0604834694962670394;-1.3423617809239740684;-0.87913446686734308955;-1.650338536897426378;-0.082346146553670993007;-0.70034738902194992871;-0.10149404632251268765;0.84077685392606160697;0.21453788027063827593;0.61435108557545836661;0.88241181067067930854;0.38902924726079457507;-0.73951377944020491029;0.67401279466579855359;0.61193324954342309674;-0.88860289864135322269;-0.74422311452003875321;-0.257278414025886637;-0.68612992845777753814;1.1054917315397021493;0.18152385872257345567;-0.21990715022100229548;1.4545395646567629289;-0.58737684818045732271;-1.3646115346243903321;0.33246375211607398503;-1.2613105128710908609;1.4183655734055360398;-2.256520749679021165;1.023089382214470211;-0.95164783214355352925;-1.488475495129957249;-2.4908779607402227185];
IW1_1 = [-1.3703681841086345905 0.91901969275759209932 -0.50554179418446176797 1.4054402518136932532 0.1548359137410159625 0.50443598640093023633 -0.31044891146953973449 -0.47752944407006553407 -1.6948982707018911409 0.10970383812492426334 0.92897393384012705297 -0.14719048104604126603 0.7467023240251436933 0.25641011709963518195;0.13936684504259949646 0.83049414676305133298 0.974225181452464839 0.68429071927548068555 0.6154973983499366641 0.64377767817893905011 0.43151234724231524176 0.7963902401105634743 -0.27019637268802121355 -0.30986147059718760488 -0.37673600394648182332 0.57315047498850502095 -0.19905369518651833127 0.48746018298514842693;-0.79763303752003889002 -3.7129398904801140802 -0.035576719818663407602 0.81445115956949620806 0.74059438583670444967 0.28443029088805205085 0.15895078947681601234 0.600270499861032647 0.79271585981087744344 0.63166819676247165649 -0.073944719596766808611 0.0291682332978125472 1.1800515608862294226 -0.84987644709537546461;0.2233409032133115979 -0.287976034222107935 0.31378073118909854955 0.81884823003782103434 0.37073632445401705215 -0.28707229647399296057 -0.052893473585080258426 -0.11364473751768149057 -0.88674754826821178266 0.31797253757601884327 0.11712135501488742106 -0.52891519791371022219 -0.73533744433342029811 1.1608895253470306042;-0.070178835968141228818 -0.46386216658032153326 0.10362457945037532869 0.89138276115255188348 0.26451814438847093269 -1.1794805512682360327 0.012257654223355545636 1.8741202255888997907 -2.1518212288435378809 -0.23516166225036155835 1.7540803059151031107 -0.6968916064780421582 -0.44022924088907755547 0.39657766234937880112;0.67461877596085129127 0.90726637555150912995 -1.1571198047860076219 -0.13992059338220366738 -1.1408141405440728189 -0.39121592940792015991 -0.11938689800421475873 -0.37798422605922649131 0.23606338903887508218 -0.19451816559302587128 0.50668878942392991949 -1.6301957655384704537 1.4596266861844913176 2.2326933870124205939;0.13181377982330019782 -0.17764499036966782675 -0.013476556985887478204 -0.98105722154664909418 -0.5657487847386829527 -1.0727964759733441547 0.052797565291126322129 -1.1601623632001842878 -2.0041837702573892521 -0.98283407068445405308 -0.18974364240269800397 0.083520589191883765068 0.35487043901788739575 -0.32784489381391268559;-0.016950586653146467592 1.0244856589562507665 -0.62128620996568784118 0.37606077526453224324 -0.039887353505408569554 -0.28701938122675224596 -0.026169279595078913381 -0.71467717800914931647 0.74018503368070709403 -1.3919554068984647532 1.3460286376349532844 0.37635081633982292448 -0.81490426088720102626 0.088131131506251236818;-0.28619333416018322147 -0.72099703239624712836 -0.67994391861846648073 -0.92843346299869389249 0.45573760514098016206 -0.53938431854124935239 0.6866199621550068688 -0.10078224943905725319 1.7749519130067310524 -0.938375219840064001 0.081200763485651542006 0.1098452145784589995 0.38902984552156111286 -0.1778675766714822859;-0.61467119025138150512 -0.089347839734044323667 0.86611541418145765459 -2.5724890953412495875 0.047580290004374137247 -0.22315509094498128806 0.11467692583181511579 0.33764958480633833204 -0.17338746802117949164 1.785010546245238805 -0.22867785098863696591 1.4813008881739702094 0.11012386472660057324 0.032198162438827435117;0.7181795970819752073 0.74943429675124140221 0.76958993802554931385 0.14624832058386491584 0.19437853169005803178 0.75723149204805251244 0.99406199454097898816 0.82768648383683107728 -0.031760472494071573246 0.48877560447465562277 0.42268463298261410577 -0.19243949797307360883 -0.32396397721263670011 0.68428051913669851736;0.22021156799866786757 -5.0744015047103996352 -0.92142219963165739038 0.3391870607853149644 -0.14724303593142368252 0.55917674200480238511 -0.021288743271412245706 -0.20590615069507284263 -0.38670608680091267395 -0.026544741968219567191 2.0999859455240685868 4.0555507297623520913 -0.14489566701232439727 0.21783506897986956719;0.082142497605509803837 -0.24235192411099873433 0.0061566928939281589939 -0.60637296842610199921 2.2431314570038223266 -0.47711745400710348086 0.058841579336246195575 0.50179970303872301063 0.5876245702432866258 0.54521302937808013844 0.47187017128599195726 0.039014895781549992215 0.22627427057955196155 0.63204940999402103863;-0.024909041087074906135 0.10098659147485133936 -0.46119824769395140196 2.516440358348216666 0.26033354145038095639 -0.31338152071837965806 -1.0028195731086162468 -0.41367422833509387425 1.2239056088591242499 0.42395754613917480125 -0.27645786629384810906 -0.36134200051544218546 -1.3987383360959153578 -1.4815587763021762502;1.0540430811774548214 0.17169563326549158733 0.012896840443279022556 0.80480321638469742851 -0.13718174269249502895 -0.75318020226439030829 0.16557103233429809608 -0.60991625234591451132 -1.1607566540962424018 -0.62234312374544997759 -0.99288165507090841988 -0.83661770644689703591 1.11418291783899015 0.7589284624426235748;-0.0037385179250425115693 -0.4231379015522537812 -0.023615586732566081624 0.9664282649839769368 -0.79370877247053539527 -0.43445413074081973281 -0.21321179534532397337 -0.51762855441464483697 0.61756269293441490298 0.085654276283321784113 0.22043842705558264194 -0.75718115684815989752 -0.46721367117058437701 -0.76457159061803137146;-1.3306224829679420552 -1.0818548915151142698 0.70130885889168292913 1.6790848379368739085 -0.15854664229214954219 1.152708627834846844 -0.021854041247154218364 0.023090040442566232837 -2.3102856730470424651 0.28836592438359587298 0.66418432928318804631 0.67506934012613095675 -0.59283374358830553952 -0.51189410472612562053;1.101299890864957165 -0.43557326789999079031 -0.2606335780281184844 0.16822274026752404019 0.19758292762698459466 0.84550661874295041098 -1.3888778910334458327 -2.0751502812741176029 0.46876155877882813572 -0.024580756929968188007 0.54119934588057516667 0.16740697210760768776 -0.84365869141277871623 -0.0140428183359508265;0.13274616462145166773 -1.7993640792513092563 1.5053629566386905747 -0.29141712852610601736 -0.43088832563287876587 0.21104561294397700122 2.8847843034965685582 3.7410980717209545432 -0.3314781606141853354 -0.3754516721459764117 0.43920310935374928807 -2.2439277311551943939 -1.8623495953268791592 -0.81676372071736991209;-0.34991476175282371086 0.59781301016078103316 0.25499277071602677314 3.5580609152138107376 0.67342702257577169433 0.27140368482011795193 0.03842444899341903447 0.37168760168331638205 -4.3191061546194111642 -3.2390699391738717594 -0.39206931494574870367 0.81069289985343007121 -0.066947051751476235881 0.38244691018663151683;0.22183753216413801268 0.81382230440951208728 0.15607149627503613676 0.75175045237484006133 0.75127843945082162236 0.34593264450763894224 0.49404035404908192008 0.65070423611776606609 -1.6066960324992289877 -0.52637549639919134492 -1.4619310816280610688 0.76184952079648005085 -0.94889849468802200949 -0.71659144498427407299;-0.70150511790141334423 -0.53909090372738888153 -1.252479527195027309 -0.11051194267053199294 -0.85280588103114207676 0.66001707826648303712 1.6097552499877167964 0.22999134442502805475 0.47541900424764815813 0.19399584364403130166 0.080551563231563469425 -0.75386223015464715047 1.5159108513522736583 -0.45289752797616583679;-0.76769874491732759125 0.867278475538373117 0.2945898901028222161 0.8082588556662415602 0.38462398764655508776 0.30434368760190377845 1.6111209678144138291 -1.2141182883718772967 -0.10789053902293699316 1.9540817553360725345 -0.34496548571743540501 -0.72774474367930230834 0.38054517294481293721 -0.066595427432046688798;-4.7941913499086163952 1.0552427068925207543 0.94281905580939073808 0.22597554841780650992 0.55727048912314680607 0.39617549922059552836 0.20958492934631348104 -0.15334993847420086421 -0.96787146347824282167 0.31536381789818168642 0.94269471119504821832 -0.15835396828876902031 1.0770024435185345801 -0.34285281144880219717;-1.9543730592179935357 0.64356791135561508543 0.62829970221789466223 -0.48075486508640408179 0.32612004801947130916 0.57196729900381781952 -0.47390218941610207093 1.9751398392654153646 1.3742418803240836755 -0.014685826142321407178 -0.55698057345859652845 -2.0623014531223406998 -0.66530514711120081195 0.036138271059954013564;-0.736488314969671376 -0.44542823585404972553 -0.15085555150834842331 0.29888709954017539383 0.97018065336905945362 0.48816052343061699936 1.2623761450177228838 -0.1122135051088021529 -1.071778974802779727 -0.22360612098738286146 0.82756947628423227492 -0.26717363958295592408 0.090029474801136460949 -1.2411550105190582993;0.46151471857080217376 -0.18004607104906167336 -0.49706945836738186673 0.45294162300363643991 3.8577349812558554554 0.6380241867565485947 0.62642215058155792384 -1.9884872726152764688 1.2986477476400721809 -0.81699862756146734988 -2.360690929452032627 0.41548030285894965719 -0.33890216440286013988 0.27015199524538857645;0.067126781017980377553 -0.43657512202959369851 -0.051732958920472964237 -0.042421351125975212404 1.4075971273871088485 -0.31392210557203720223 0.58168296191676327478 0.24492847188850958018 0.226583549302449061 0.66721484758775551072 0.9004898917651800172 -0.14036567901918423074 -0.25877278065387571138 0.23423949248190018002;0.11646628395546468338 -4.5728574792758962531 -0.341160965314518283 -0.11935206917039442587 4.0193410391906647661 -0.12801226223158299056 -0.71031321489277576831 0.33982929459099925351 -0.61193763175286974842 1.5971512574799211492 0.26385203517610411605 0.58829275589878260444 -0.1783283971569233628 0.077424752367609303572;-0.36014361772126424199 -1.3596909675199084777 1.0435313426917238733 2.598286941008698836 -0.059850031247437034121 -0.44915929050599473493 -1.8212803009665163856 -0.14537674823528601298 -0.11550098441774980795 -0.11953878237866716328 1.4908236184940091285 -0.34696949429982032465 0.68692155949209288135 0.18650507269731311788;0.45789501458454884286 0.58388472033039962028 -0.8806389327364894104 1.3240232783361511881 -0.14097604354847353969 0.5967006901877102143 0.18131153448273173989 0.33689530815090790172 0.11542666565046207083 0.35356006687091745544 0.71310772208592776433 -0.26326718523102360381 0.55660509116596890156 0.8745773816976252224;0.12499152604521035492 -6.00174056697324243 0.11603153148324266142 2.939907453593715303 -0.33246083122808389732 0.34377334488915584076 1.8448511769183950637 -0.53554752142283013061 0.2828677371675028529 0.24224989757044090855 0.12087667352129952136 -0.21189271773926623976 0.41864755389760877069 0.12451785432140780041;1.6181159910332183482 -1.839453553030699906 0.2177302304768161112 -1.0599863522379426861 -0.22797249227065485844 -0.17154616028372224323 0.0027694789980321778654 -0.24578299924617302841 -1.3578530642226918079 0.0090361331256781640686 0.93395501038266748317 -0.71199532440245949516 -0.083304548162888361618 -0.61744098932604307706;0.80383827792150730485 0.14104483406377071875 0.57079448705465918312 0.47507807909027183202 0.62730932401919858865 0.20562628034469068727 -0.5135384921156815885 -1.700445401650535926 -1.6752419031387335568 0.66291745868733897851 -1.045506256934815692 0.80953145295389272729 -0.73364007564491406921 0.30137382428453707295;0.52814786107008238059 -0.50170937835568252261 1.5709302312258461853 1.2481269869391566907 2.5296781622603128348 -0.67802260173769002272 -0.33071140577898333612 -1.2818284040283745018 0.44400034580207575763 -0.75748502651812776865 0.58641226335424900817 -0.7509395381937308267 0.52862693638681068631 -1.9325527376142725977;-0.8075797118685938969 -0.25317851840791233409 0.20651745053596573531 1.0350180830219275485 -1.1738838382727041498 -0.37700375263854007946 -1.0139493824601983896 1.1123383924860006378 -0.47388592889753217152 -0.62334503314788147765 -0.220470596153092252 -0.50505914673060947617 0.28675898609169325759 0.2171736789338583884;0.05675754635408532256 0.13017322596879077334 0.0089089638208280450687 0.88585411006658731914 -2.0058649531277641387 -0.78409115497898884684 0.89666359107886817181 -0.77591341006291614235 0.79459787625559552549 -0.37726954352217961786 -0.16410713714357108572 0.10799523550944337136 -0.39334937429124378072 0.068454486157297156357;-0.23660724434212282441 1.9237714621164443418 1.2669485559807740493 0.048552528061597655107 0.36952118737901551437 -0.60786705337688307083 -0.60983976721114185882 -1.6961948865878584414 -2.6851307460561728568 0.20673085840614977005 0.86570104000123404564 -0.0083646027221971966381 0.045974088004905433458 -0.12758552411423917938;-0.33770719385489617048 0.23288141898274569708 -0.26009999333117561626 0.83687544926761403552 1.1498154863959666461 1.1030805019429541503 0.33427115528088285901 0.44796194243607767582 0.052051345780512181527 0.47224183390759871815 0.93438199319825998579 0.25520113181361125942 0.0483311576962824202 -0.018176352714421677853;-2.5294358394361564635 -2.1765409379580500371 0.86822287971299461073 -0.465530738262889765 -0.36851281988812389923 0.18816273808614908392 0.97930873612505697778 -0.053563522619706982475 -1.1696763180755747058 -0.19561489357815359247 1.933562310205949375 -0.38128303246031219897 -0.38105271677776147987 -0.26948804704172862889];

% Layer 2
b2 = [1.19174460522717518;-1.1078401616351769565;0.44486237545471229993;-0.29607808993590262192;0.088678559268596177101;-0.89238574673960679995;-0.59053146323769256654;0.37241264297666054617;1.4808425242565248503];
LW2_1 = [0.22014827241011991621 -0.28870143850348828352 -2.5576070901987177919 -1.2220333685447932748 -1.2782746646216938124 -1.0457789585833547896 -0.33187269056303819736 -0.17052168473920750746 -1.0131142462052922237 -0.92722671224548292024 -0.80973866239446568027 0.31964125091019773839 -0.51021272138587503431 1.1343121894469159194 0.58206028839778445327 -0.067906754754629289339 -1.2828611503755333878 0.86740293922339162247 1.8375358144346201072 1.0306020857683166891 -0.30197239278538173801 -0.24989803926656797839 0.59258379324835064317 -0.28163491862568224011 1.301546440305147323 -0.40026838366121375579 1.4929943234197211588 -0.35645255349309051818 1.9094069148524006607 0.090761877065784202223 0.7900008331486125801 3.2298126062007939119 -0.86504202358517334748 -1.0179816536530870152 -0.59633662726275449284 -0.84305796428336177151 0.17020099783588044096 1.6579233585851207433 -0.085539340804294747289 0.84947278218583732734;1.3459979203399521364 0.65895743990872501783 1.7861140295179234183 -0.35808201416204710199 -0.76168033646730270991 -1.7767341378669463392 -0.18280366449630980341 0.70204122913752975421 -0.39450731008368178365 0.95479693043302071853 0.44787277129615055138 -1.3820779957144970762 1.0373006106028532791 -0.8684438857928571398 0.55642764619065354648 -0.04993631452332786963 -1.2372806395683939584 0.47836874047096938911 1.3995368436302981774 -1.1180209162754988217 0.24798225574431626006 -0.37863232039529898243 -1.1769103013369819344 -2.1688463286345358583 1.051072554135943582 0.92801906673078959908 -0.43050763388757851136 0.37889594514887325882 -0.99546822418128610988 -1.2189519058384343797 0.33172007871346848029 -2.0067912650516119832 1.6855105188373984415 -0.024575634691102167528 -1.4808893130818456818 -1.3577576941058235871 -1.0599341120208709555 -0.58502281988294690951 0.29287201384626693201 -0.56306773798223952454;-0.8494178989682518166 -0.40392492986868894222 0.38349042270626154671 -1.2962342438322320692 1.0157740675539252972 1.0694544914408485869 -1.3830299222701625261 -0.36518508939498495192 0.55567011202057714492 -0.24446290377297424934 -0.98143179002773295316 0.93305728659414621795 -1.3285836884858872597 0.17941073097413196002 1.4062066341195125219 -0.40077492963613453592 -0.045609099690805746108 -0.72389588879484589867 -0.64047353900591608156 -0.31952590264899588535 0.20753977915036522783 0.1383197003675100123 0.47176945389094726568 -0.11285875863923149065 0.14071567512810950751 0.61333883727886506776 0.90682438677089471923 -0.57863114293171358238 1.8214824202694677169 -0.9607020495064015897 -0.65670841527362044943 -1.0655702954546544259 -0.8949726490019659364 -0.11967126142176759407 0.17049259608403263822 0.79953631987702078465 -0.073583917369829304755 0.8665942127469493661 -1.198767169701293378 1.7672880311551057986;-0.92270226331280569276 -0.55394041308443342508 0.73817175828272407756 -0.16780804883203570554 -1.1181420986986272403 0.10841794648213325114 -0.0015132922021895457709 0.89383196094633876605 -0.29396523975036797927 0.72822653495610523144 0.1653575546881826952 1.902215343616357579 -0.15875741403276094621 -1.2119777839409460185 0.22671669753640699696 -1.0222081349859837296 -0.4202382001939640177 -0.17381902603919413552 -0.47400839972514907661 -2.2609571785324229509 0.73905700106488381174 1.2834597785336852027 -0.75205160297749940046 0.019881112060560993116 0.47411929412327569189 -0.24900638976064912167 -1.881736464003076037 0.37529347918736744028 -0.10447569098589078174 -0.60508916656812350432 -0.85906869183654321898 -0.76801696029790511577 -0.83358925116097859487 -0.49628192746804955515 -0.11910425062597033985 1.4724008284784690925 0.035859285395957077314 -0.38834322783034896931 -0.14860642349486774538 1.0732905012537092837;-1.8083874294879374034 -0.91083025853067112187 0.74534541851993874051 -0.82983874153899583881 0.05191623857960958599 -0.21777749035582644188 -0.84108791879090394339 0.72503938530315670263 -0.17440493086140945733 0.021988766758041660559 -0.31578918773028052946 1.7240407561628681155 1.5640113159757655925 0.46664342026908495198 0.90450741184706395792 0.15759475098384145841 -0.63881705970990587673 0.065309729511404054914 -1.3825699550661798565 -0.19469334915946243103 0.63396024140958584514 0.98537192988218591516 -0.1221581078599921627 2.019711929462362221 -0.99006358368722746643 -0.67087077354345225899 -1.7258954433696263031 0.61850580385806874784 0.088493219856330990192 -0.90518203303473210308 -1.2535508986240695428 0.45583357323065143429 0.35435936720635802244 -1.7511281252319228496 -2.0887194473564250075 -0.051831359126419063177 -1.2753125941145271316 -0.34260533746405097411 -0.55101129461711351176 0.7005525747586895946;1.1885872507680876886 0.3018591799193160452 -1.1047558910102559526 -0.43869614275032692285 -0.32571847095839501218 0.47575335564040061032 -0.044246151253862962827 -0.055978463496603091121 -0.53917547296658918654 -1.423074533757781035 0.2590421285239697391 -0.76611538956876990003 0.15792108926229028731 0.75923669526479586889 -1.4748286202902158859 0.28659096604550798881 -0.23961633726207842709 -0.45459317928876169512 0.84122225075133949534 0.54258876137431899522 0.340114682925776457 -0.43753367337945731075 -0.17993923217894455813 0.64416459522480806754 -0.95851706702627648138 0.84396106423724459589 1.5697199662949381516 -0.14520683142490062312 1.8148253136536147689 0.86038326366007467083 0.042607964721197252866 1.4944499930723997849 0.71050217029715179162 -0.69375123598894505861 0.24635633120232491855 -1.087922713166999733 0.92870909317745897749 -0.69433390574928222083 0.15493282072377267955 -0.37595008854937905785;0.62311870422880244469 -0.10304980723911794094 1.383145351705347359 1.6818250795313898216 0.97903936930670021344 -0.3240909542892879136 -0.011283798955139374975 0.60240673927804611054 -0.2304693445175828026 -0.24126008122836642422 1.0824658067612089596 -1.8241936561558391716 -0.65293294098762100219 -0.51513315029472517281 0.51542959075228811372 0.054880777078170739358 2.5258888072081613352 0.048650985562549278751 -0.50329454313684218736 -0.013265619541574591791 1.2633819755438238097 -0.11151014791917883417 1.1974915109035444427 -2.5028365395522400583 -1.2418669410979235046 0.83101775305678104999 0.1846000081951122973 -0.10638052994748861679 -1.0559827401374426437 0.53454459793255870714 0.35318474324987952917 -1.509148819882028647 0.59888880277582323686 -0.43023745727507256564 0.36026822584005396832 0.44621881175594829694 -1.0562108292270551146 -0.42989407752090247339 0.14255418683046133799 -1.5111102908163784875;-0.060021033638386372955 -0.38950840343805565036 -0.64930325396719756892 0.29371473672205278271 -0.19886667380548381234 -0.38422908547795098233 0.80889450983406785411 -0.92930857918171805299 0.15984501397189526672 -0.86719761733388933678 -0.52332346354623116014 1.3295569112914076282 0.08240581614934519572 0.40286458637009514572 -0.15809928588636387725 -0.438935770039192652 0.50045479097973122329 0.091244977776242172651 1.9798880975513968306 -1.103233935661052989 0.15158180247038061106 0.34243851109395218035 0.21541087308073850193 1.101443427628252314 -0.13087328732675712617 -0.28179632307277691083 0.037459729757810630857 -0.25219583939454753851 0.59776740735418731898 0.69060410902674618239 0.21471995522955464319 -0.85040757875549310985 -0.54851224701226253266 -0.25146070013827015455 -0.030118021556120574966 -0.92068049761291825828 0.50840866511309834586 -0.83853819270022056376 0.33129913150303724745 -0.32237201936854520401;-0.011804059423610581067 0.42822074722201242114 1.5889099118661420551 -0.24217457758083929531 1.994004109167911043 0.040403827218019001954 -1.3679643644428485239 -0.87360452836004609534 2.0441644025723313405 -0.11130723832130808015 -1.586753250562970452 -1.4928384736328670357 -1.3083138484127803114 0.92168981558808460441 -1.7179352050963614396 1.1003987707321074563 -0.27077791515611349116 -1.7140218116186749509 -1.1898896872597040097 3.5006317876689716506 -1.4956430554092492446 -0.75611481418888137895 1.9051980548553377748 -0.31446439313704055429 0.57704202720263297888 -1.1006921600047367971 -0.45472113572410055582 0.69685165127862347401 -1.1204916342826436448 1.5434937932404715344 -1.4109575610920657152 -0.31905974623499749887 0.38538830570241972007 1.4522818162202557613 0.8936008939076951485 -0.18772126663352375897 -0.075694615030091172425 1.2410235968200331591 -1.1052981917619773 -1.3230816060458283623];

% ===== SIMULATION ========

% Dimensions
Q = size(x1,2); % samples

% Input 1
xp1 = mapminmax_apply(x1,x1_step1_gain,x1_step1_xoffset,x1_step1_ymin);

% Layer 1
a1 = tansig_apply(repmat(b1,1,Q) + IW1_1*xp1);

% Layer 2
a2 = softmax_apply(repmat(b2,1,Q) + LW2_1*a1);

% Output 1
y1 = a2;
end

% ===== MODULE FUNCTIONS ========

% Map Minimum and Maximum Input Processing Function
function y = mapminmax_apply(x,settings_gain,settings_xoffset,settings_ymin)
y = bsxfun(@minus,x,settings_xoffset);
y = bsxfun(@times,y,settings_gain);
y = bsxfun(@plus,y,settings_ymin);
end

% Competitive Soft Transfer Function
function a = softmax_apply(n)
nmax = max(n,[],1);
n = bsxfun(@minus,n,nmax);
numer = exp(n);
denom = sum(numer,1);
denom(denom == 0) = 1;
a = bsxfun(@rdivide,numer,denom);
end

% Sigmoid Symmetric Transfer Function
function a = tansig_apply(n)
a = 2 ./ (1 + exp(-2*n)) - 1;
end
