function [y1] = myNeuralNetworkFunction10classes(x1)
%MYNEURALNETWORKFUNCTION neural network simulation function.
%
% Generated by Neural Network Toolbox function genFunction, 18-Jan-2017 20:21:09.
%
% [y1] = myNeuralNetworkFunction(x1) takes these arguments:
%   x = 14xQ matrix, input #1
% and returns:
%   y = 9xQ matrix, output #1
% where Q is the number of samples.

%#ok<*RPMT0>

% ===== NEURAL NETWORK CONSTANTS =====

% Input 1
x1_step1_xoffset = [0.310366573397181;0.372963628847019;0.267919188711523;0.320510920199724;0.265223271316369;0.250998663793316;0.302495323112209;0.305168442605917;0.298072935097354;0.285435429008016;0.282799287188694;0.366098955837076;0.269699285508046;0.244939673596317];
x1_step1_gain = [0.640245529658591;0.841706880750196;0.666524965814825;0.65928871739007;0.693517103335761;0.673818858384834;0.669906992821985;0.68243246808237;0.76092426233936;0.690283802473343;0.735945997262488;0.681107048528613;0.729289655655896;0.619560541666303];
x1_step1_ymin = -1;

% Layer 1
b1 = [1.8821166454541569113;1.5472133991929817309;1.9879002068125632974;-1.5010606160826625022;-1.9183075176802077966;1.4196277016215930189;-1.334304131386034209;-1.3447830013063488686;1.163443727397599714;-0.94681916947929589679;-1.2387309976391385202;-1.4796217061182594943;1.6020646830437863528;1.6211198982238230748;-0.64119537383792757357;-0.69274973796289551764;0.24500726585349064113;0.54779508645030039471;-0.50399768385847232288;0.55105829870469380527;-0.2322813910581965624;-0.13010819337040344101;0.20404615858097413517;0.24055583485565473767;0.01847815804762328179;0.60010465466975582149;0.20780961078598106373;-0.061466102935847838351;0.54902358040981757981;-0.22826108615743262442;1.1208734095988950319;-1.2026000373131513488;0.72164021451505400151;-0.70139455323775024009;0.76768463595338642946;-0.69672746817053254897;-1.8590682603046002619;-0.83665951182511333339;0.96240915457737885585;1.062816041573410919;1.0779505979310708419;-1.2379198285406811664;1.5003858386387864954;1.5631778988166542543;-1.5450112472852217671;1.4664452242446517349;2.195233646816573625;1.7767409963372537973;1.6398791954458393771;-1.5381915855433534457];
IW1_1 = [-0.5760734458325375007 0.366071734310606689 0.46617563148440127607 -0.14984800352760085929 0.25316556330977463274 -0.10735281135024532517 0.56827142331372504369 -0.26598596107180938475 0.23162033410771670772 0.82113078005531769943 0.90573865314617907352 -0.50496611181463624263 -2.20071728085065077 -0.81266124429746910973;-0.3336414119360534003 0.60775471198754504876 0.76682232269851713369 -0.32741766430097846152 -1.3293691740895636766 2.5831666816919205409 0.48341415887452576783 0.23092105827690806441 1.4865079543931105643 1.4372477263155967186 1.238564486182673674 0.12117127375678912737 -3.7476267571721786354 -1.2058635610530625826;-0.69970379134619620221 0.34120193786198793617 -0.67902354287886346196 0.17984497076604064048 -0.016080124353114545743 -0.57379455344840168962 0.40475826338103970681 -0.25007406314946567516 -0.49743644197020314701 0.18766640986214255804 -0.67534096605685833836 -0.18011403678814355556 -0.74529911724221720171 0.45764152324410561912;1.4727535089507974853 -2.7613562401245190792 -0.64381432509543368159 -0.73234778616388285233 -0.37647048018055312424 -0.27850496409813962906 0.26954376138758756598 0.57770998012776386688 0.63170743372434745577 -1.1977471227943612408 1.5490421206381623787 -0.14736251749823198187 0.59274742939235181005 -0.65581954750726523251;0.31676741751841719363 -0.63878146410751923678 -0.18029277227631204661 -0.13435347619326318269 0.72253836763594858628 0.33540547145739729729 -0.44097172657319128053 0.15869990422451540901 0.14920428510183242343 -0.13169746101669513316 0.71400454114480771395 0.26975827998100077032 0.51742499642094119672 0.74339126580146364098;-0.52312963018752411948 -0.59360143332891335266 0.17195835093244915548 -0.58356780039686251271 -0.69228746008548491808 0.086605199027894999575 0.53144788310574742063 -0.36659557871303305454 -0.3322298774683251632 0.40303746955299024624 -0.95435319882424396454 -0.11860028840894819291 0.17990484539498355354 0.72778827801063328273;0.23992692480927338416 -0.61845197911627658449 -0.25531935101466751714 -1.8988389674699805987 -1.5517697558845779948 2.283701055019046855 -0.77175714781595661229 0.48926863914299673075 2.5182476412100398555 0.019595521370507101855 -0.073048667813391851555 1.5006406205810285392 -0.91089062178892898913 -0.71050305765276988712;0.61668885208505264117 0.52292010503672237132 -0.21245670255778911772 0.71917692368686614302 0.29040311336114671414 -0.15563533199945780994 -0.16364208655523637681 0.32737495160665153193 0.56862830517046958345 0.51146305761681987168 0.49674492935392633441 -0.64217481579364166233 0.65855017998877551921 0.59495492646146508342;-1.3328975537244009963 -0.2871774340466476394 -0.083403071053604019292 0.77403183436054057154 0.41990888198238529583 -0.33695408130824489046 -0.19553026078188462389 -0.70935153493319347273 0.24206374535795346925 0.73558550357530583241 0.67774490766657347063 0.21410055058031340902 -0.33694638602745791145 -0.25386324836892454337;-0.14626452418747384887 0.54915401599175139857 0.52800521070729744544 -3.3259308559577465125 1.3353968929813788691 -0.089268051659133179632 -0.49914438912533892756 0.36379141309409745997 0.37127199817299266771 0.22633331726187930211 -0.33109043043416369612 0.19972141623339711991 0.34356912751830354091 -0.10074661909293608497;0.10195361749080901481 0.48095268271596169907 -0.76853773815832948646 -1.4257679151601416745 3.4521432434797834077 1.1710693304157349104 -1.1849613773614458001 -0.63679761440886839541 -1.0342153026245217706 0.90453956439263261124 -0.033785982911608170021 -0.99108881929798642307 0.19087000574411075449 0.053764707509442087596;0.58957172210928843192 -0.93720139566308735546 -0.37561106080636580407 0.24180223063852010479 0.18961289993930366404 -1.2716161670944403639 -0.32612363885028960997 3.3775277549369695507 -0.90001681858199600317 -0.13947566416864951022 1.853620876165452902 -0.10998972559652381298 0.27865803235959024642 -1.0354748289861106514;-0.59018582755123938366 0.14777270581428322838 0.1616022255535859431 0.12365701759621251787 -0.10180004524849438352 -0.94588422730825660878 -0.90031291331754292884 -0.11017121096079576792 -0.44495688505256292267 0.028333006491347716843 0.15788420134780292714 -0.73105229215407685484 -0.63048411398141923634 0.40064055896238454091;-0.71179213701091192945 -0.023980134615864779485 -0.58794550693676983499 -0.6804697864837981891 0.71213665571176798519 -1.093326483554235784 -0.64706378859240731849 -0.52921700513689007295 -0.33273220788317137142 -0.8613655671820039661 0.21342731156327648945 -0.17365145218045424658 -0.47788965448976272743 -0.66915617974233077003;-0.10859147113944714325 6.8773871613556094573 -0.0717283674744792904 -2.3199057008764381038 -2.9309533945586050407 0.25592260930871785218 -0.034259807446289626542 -0.37697592611388663908 0.45648029461181621746 -1.3962426535274052863 -0.074168894495040091353 -0.039242221094313765872 -0.73344596951992024891 -0.53882839857190589772;-0.2352827967368144868 3.4005781179773526546 -0.081952023992360803484 0.77466484020391956911 0.025849847760254538592 -0.63977324183846029371 -0.57479399012002008185 -2.2823518936185598349 -4.7764696003784710143 -0.21892055601172760726 2.9380360694846818781 1.0716398421886288439 -0.61060675722620094685 0.049944405248414078247;-0.72175988551532166415 0.73097319386366177429 -1.0787467132847827767 0.78583372512336568949 -1.467294581203956394 -0.14405366839332167661 -0.084078274569559643958 0.57667154000405818071 -0.54672072570927721102 0.62372895977084785724 -0.64635219957396683466 1.4458060071089722243 1.8167192224130173095 0.27192332026544641099;-0.92651038997688084375 2.7612433284516604282 1.558849224861824645 0.029241946975810881315 0.42657184575663098514 -0.078035823503004808632 0.1643272488676020826 -0.37949671713324084621 -2.3265963247177108286 -1.8599750277485522787 0.19958830230740487455 1.1893015161560354098 0.62539019397942519074 0.94326049729199368254;1.4376768592211937037 -1.2715461627036666048 -0.12403148052271907587 -0.10131782004041149647 0.31233136675881018052 -0.50332665408339782864 0.34487068500666928639 -1.1947600288677939773 0.318931222820602156 0.089412089976576125672 0.87729525479995595916 1.137320128354260218 0.40265999892128118143 -0.60609151987170872822;-1.6349125283015177867 -0.95657683442796037632 0.73015701131434618265 1.0189928758372992501 -0.058056640047237671742 -0.45327392428985907591 -1.482560947842161525 -0.34919806842917944234 -1.2747473458783962208 0.56672472791594608044 0.24686462994885269295 0.20553598513076015708 0.93199713178507992417 1.2647679216952989467;1.1913395872937577735 2.0031892645288644772 0.99922103752678392841 0.57699959346207330135 0.086571140952570180271 -0.88442513116071785895 -0.49669349001801349486 0.58575167507706982217 -1.991675850339440057 0.33095140111150944673 -0.29036088183581515443 0.7773073257706262229 -0.63376388243124326394 0.26772097926125293377;0.84718986426118292332 -0.53145858296124215414 -0.54843957176910518303 -0.075709672475154976556 0.07758194033892028274 -0.38683531594170156298 0.071509832244543644619 0.34086453111466308297 -2.641719173472869997 -0.43710475065350223867 0.89075267313643269329 -0.073002176026696438682 0.30902371583408633215 -0.13771652606106163375;-0.31711470232459537666 2.2728873251816330558 -0.014311668060930014118 -0.79064638187165581229 2.4451984460926383669 -0.69630050875367877072 -0.18402138101353904265 1.6132879572912699473 0.031768268890678519334 -0.10764081170042966162 -1.6972836793320293935 -0.32693095848236319867 -0.072092120491741309984 -2.5126218610454595925;-0.41204673727022972374 -0.31402085918572059109 0.1038002408954288025 0.16834363711732286406 -0.57213147825424792714 0.016151016523341339692 -0.20148210462327598158 -0.14502676013178469883 -0.3393839098875142124 -0.20842339809253587757 -0.093819380573341076834 1.0122482388074733883 -0.24107421422112504383 -2.216415813239814625;0.20803009420572218802 -2.4777355872739788012 -0.44823464373604526845 -1.010430054853525883 0.80823434472363664405 2.7034023677292093879 1.5835425098807780486 0.28400678469761919676 0.087838982241458515854 0.43927641814758466854 -0.6739869343085870268 -0.89626079238124956028 0.82533295915053650482 0.62103750483795061577;0.23142429219308505162 0.03878966266245736233 -0.60527845548748115956 -1.1225316399295337533 -0.61803448209734368479 -0.59476683136917452011 -0.59546367214566575665 -0.4635523043368811047 -0.17393982937076915563 -0.32593276006537102996 0.49448326774063566802 0.2407293459929580326 -0.68561044766518530746 -0.98287803596388068073;0.67443725409557531147 0.28498182736719140928 -0.20229412226001991515 -0.089942061222067742898 0.21088881089059818841 -0.23693701993323440513 -1.0906729999912465612 -1.5397119753046673019 -0.45873792411425390325 -2.3339354547726780531 0.60388405415877188798 1.1415917091498157809 -0.33823316079710169513 0.26339343985238128365;-0.26859139130516251903 0.62950461167622895342 -0.61012839232903182118 2.0099017570709825087 1.2448192752200326616 0.33977663671675878421 0.48078867803203573228 -0.129036483391795187 -1.6437684844746256463 -1.816580102947705333 -0.61885342754068939364 0.75169128726661083029 -0.18297796993251419506 -0.50868849787991154976;0.3118524932770010416 -0.65686349692048195958 -0.45445899843559411924 -0.0069911565999393925422 -0.18427442513942443592 -0.22830099677669030145 -0.83414711590452972345 -0.099929888153964946396 -0.25489703439438049504 -0.38718522583877357235 -0.79021012518692546056 -0.74384473358083502692 -0.58341209219572920386 -0.85292268293948103608;-4.49789702338743691 -1.412357195486698247 0.95294378788555667015 -0.042123610261742078231 -0.022773650757008056383 0.65024436965606235983 0.094916521870851366938 1.006722226631540984 0.70931101572397825539 0.14932585599590014747 2.9907133242492829339 0.7240470574840968121 0.34670258293117578452 -0.31316858750211334916;-0.053351094851791722173 -0.24878163737703951064 -0.35364990791299188988 0.016169795474499502885 -0.89733665698053244331 -0.6521207242882191002 -0.48982757047047692511 -0.86777368685084788069 -0.78043165751358456461 -0.69948695066984378776 -1.0091060811387217999 0.4365008241126314692 0.023088946824377652028 -0.50990191282163732645;0.19495927504034643585 0.073598113719068547489 0.81923879276857791698 -0.26570059669977602601 0.85751110350403081384 0.84696277890744176009 0.92619904556652943306 0.21475160437565710136 -0.10412943150396138103 0.90124489011192987498 0.35667635682049630974 0.78273220736717685764 0.61649374958380098732 0.58557543814353540945;-0.42865574410558426877 0.56901691110059493539 0.59691016904210691951 0.71876888066197874849 -1.9005008003871897149 1.488637076821095917 0.39356047268774696501 -0.62576423874609687914 -1.9014678253732733015 -1.2248499890087019004 0.072819029288035047598 1.2840360567920621193 -0.39237621920198650916 0.52347105893529899401;0.040493646834757923703 -0.30356060498648063106 0.32903682748187446094 0.7439009339965055867 0.53610258188173909311 0.78652241800230238145 -0.53440656103111827679 0.18428471661356018996 -0.14421220108064622401 0.25421443540807103778 0.70838257975056850846 0.58134432874871067032 0.57376817736996976738 -0.49681370551792375378;-0.4219926917555271717 -0.15256560771662752707 0.064625076059395283878 2.3687046277681598205 2.7800360692853556266 1.1205559361658634643 -0.96222737864877283531 -0.091472722436317516204 -0.2542832518596631064 -0.49863380192068634811 -1.6411445643344355627 -1.2528296779627194901 -0.92828136404676675486 -0.14177281428687413256;-1.6171782313668210396 0.31831963074558711213 0.45395810170267808514 -2.9800099138461191295 0.8053712646033728273 -0.39734442714638090743 -0.3413015039332142897 0.95349513166432375844 0.49161554778993826753 0.20297010809009982668 -0.13898346082356025089 -0.072374984838029676748 1.6112828738239464155 1.0268050143190683432;-0.068880158524566900691 1.044800369124291084 0.025763545717145605596 0.58097324411276518585 0.36819940992542765645 0.73514998952015908618 1.2261881511335417372 0.38956005493787515537 0.55132944715593545926 0.25762716798596380086 -0.042360521256566883996 0.15775010018421381508 0.94400482033457200348 0.65051456911956817564;-0.38029574207374550188 0.12273434338506765406 -0.68326295571283846009 0.4012667536911463384 0.77468302495307117539 0.59506516657644625834 0.64460331466880238516 0.45469233827342736554 0.40843537214484082476 -0.074672336932947572241 0.822485410174637388 -0.46979364262747008718 -0.27797334715062288479 0.33969550721388319658;0.32463760309962402806 -0.3786160827876782764 -0.55850976831248100307 -0.16836348572792081413 -0.53488570767318477372 -0.26451580797218343655 -0.29634903984515853503 0.6711138750066288905 0.61822613550195248955 -0.30759222422380250173 -0.5574572562040429613 -0.74536780058508056435 -0.24967150644030006168 -0.6616740308296557016;-0.20284309948166320825 -1.2649984408898187205 -0.58205075309296594455 0.49146169814770679363 0.82292787326628835665 -0.099156263956664006387 -0.097247032287177015419 -0.019386487956963724399 -0.015224427746372242234 -0.23057999494313771716 -0.081093952052336104597 1.1969005332830959798 0.860202757645844307 -1.5530185059670009728;-0.52419725648147552644 -0.02391805633461758368 1.3612418348292560921 3.5918119758549527099 0.28891403998253201157 0.21540188812402522034 0.41593773328773414599 0.42486545793719177055 0.33067082751092480297 0.063713495196895258976 -3.9731670780117331887 -0.56213157397001445315 0.054318013483728312674 0.35751995394490643232;-0.76620697849004415492 0.11423508646451149828 0.31549801523377146717 0.25936414363470999822 0.017655094685897505108 -0.32674628902433106026 -0.07413333562073252947 -0.77272442642593530682 -0.18806240975409974081 -1.6955228042174039782 1.4837360754519015593 0.63382479879495667863 1.3773692030452167057 0.096639799394745623529;0.38817149922488297653 -0.30059490550092443639 0.37028391823371997749 -0.23406398986749588076 -0.37511437166096950335 0.032313394945065097852 0.36911824470218568273 0.40321649036216855588 0.80455366007481532442 -0.97037200626902408995 0.049580683917038133324 -0.44836714710103509063 0.29061561949574610253 -0.9563349289709121015;0.87733557542890650005 1.1283941847146368165 0.22743336880658732158 0.83667445321817046633 0.30344384636220927964 0.15829397695887828523 -0.80075922298758461793 -0.78940826275114539534 -1.1090113216184167566 -1.4044890849258788723 -0.19387036479616676088 0.06370366073781334737 -0.11347874217115984374 0.44383259973078953431;-0.2082732435592571929 1.9974633429473842572 -0.3507328361625556834 -0.11162783186021460469 -0.26575164658787864269 0.19119638990340195872 0.45045651315460327746 1.1930603222609370562 0.0097433830595586596451 -0.39175528603946685458 1.2275685817225101548 -0.36400654784531466523 -1.080907393231490321 -0.33184827220630719324;0.55452846283619117163 0.22196284593741469338 0.51899215561986622447 0.24209787904991111884 0.015009244680125145149 0.36460026932068678729 -0.023231220790732070441 -0.50006814883045691555 -0.23709264291493889476 -0.18724084970615043066 0.66530235677795601656 -1.0631800796677854937 0.6265838227548499173 -1.1098705965763124848;-0.0045238530479982681093 -0.55189738976217550537 -0.56858279930445343453 -0.27823250672850868837 0.24016168337104204511 -1.1088971822951414481 -0.32602093727499953379 -0.24529728277624238131 -0.13565983967471381688 0.16622608925391557655 -0.34147623946409166873 0.33427051868050222661 -0.6045491441854775605 0.57571443172439906721;0.32806766394931796693 0.34121126808991153467 -5.5978085027239981031 -0.049732750136513889649 -0.44163973283295326899 1.3093391684420510046 3.3028217506376411627 0.44379156963070326425 -0.015332443334609684865 0.0063214662639253307863 1.6659985258243692474 1.2389687220647969124 0.080176510795177957647 -0.4767010211041042278;0.61877113742671741026 -0.049571005147376709377 -0.12629699702005078854 0.55709140571937554309 -4.176771873706888627 -1.3791322859878172302 0.90680213235875339883 2.68508895389244584 -0.63263579103751277355 1.3690532849021794792 1.8643617745057419199 0.91699026135657701886 0.55769667194792560405 0.38301234622807300845;-1.1679470042840189858 0.81519910646327309323 -0.70978419905470846452 -1.3548493769379090779 1.0596670641706744664 -0.15202527365967100081 -0.95448038341036711696 0.52549810397807594775 -0.40244366690813748733 -0.53655717958765802855 -0.17219863459824108487 -0.15503683818559807484 -1.2956455625760301409 -0.98893612049359891358];

% Layer 2
b2 = [0.61878534302473464646;-0.25115316714206631366;-0.17685176668500485198;-1.137293308068336728;0.1439730861673428064;-0.75618424777077086762;0.55309460006717081626;0.34571376892116079116;0.67097051170721089264];
LW2_1 = [0.40278034183444261229 2.1565463142767189453 0.50589807684568044444 1.9218399159280052935 -0.088127996009917483611 0.6326452836760934062 -1.0502663954398174795 -0.12121707295924727399 -0.78862597503922615694 -1.0293810109315268964 -2.4619166644491063956 -0.4417557305004581325 -0.25982247865470819992 0.80018306232650782128 -2.3708903468071769183 0.71314986062481622309 -1.0655675141388114557 1.9933566651033316486 0.30224270033577793626 -1.9365117322842511083 2.6198685145884379466 -0.84935420809064909875 0.28215582858376936359 -0.58423365766022683498 2.0269548912042787414 -0.46150866639954757353 -0.64671902521683455323 0.67096921503660544861 0.60024965346604530758 1.4923827548654025055 -0.2816393025771841141 -0.19114910158227468862 0.43997829957591627625 -0.98728738009030714284 0.8511202235730976895 -1.1423535586987596524 0.049299104528914609868 0.2320793797679863435 -0.39799791687235530624 -0.97147611376773101988 1.9761399636938554725 0.84719686750866041169 -0.21527309903954314207 -1.1941302934010511461 0.93585282756036936025 -0.55354140991018541129 0.6104328597607466822 -0.63652054271308755595 -2.8720056413776422488 0.9200726027791285011;0.23079815286907423566 -0.26043701542664515758 -0.54539333888530172612 -1.3515594152501864134 0.68402201330654921474 0.33499460865633351458 0.83013454109247852841 1.1741671146086640753 -0.36163397482018994067 0.62907605298732538479 2.3369081882035964703 -2.0668820104143175165 -0.61458572549814749486 -0.42261414564758120749 3.2075991185451115939 -2.674145847118525321 -1.0118966923384131729 -0.79937692489980582966 -1.3659919898658199333 -0.54711603225237148695 -0.25300639882631564825 0.40888632732888330334 0.96600685918277628961 -0.70739514284433169244 1.1705614777466861742 0.66501363800573531915 1.0173526534515853204 0.77229281638126834331 -0.70585505550063609714 -1.6262582288954470222 0.44458583157210229686 0.41462664008907468283 -0.58914648704115402111 0.3243870921501244009 -1.8284202708299626128 0.92194502064250027917 0.67338276619308279347 0.81396167722340351247 0.66222170989436546229 0.57940827661429883388 -1.1657979745781401615 -0.99771692720980043045 0.037477954443884992086 0.45357933466552508017 -1.6461478084070726435 -1.0154448629120746972 -0.68595190819656426395 -0.099649356038658570833 2.7951356833463818496 0.94111375371209327056;0.82330158657352547902 -1.1152392100341219638 -0.87024968979998662544 -0.56070892193053700758 0.82632381334390103689 0.80556660349677378097 -0.22397130769416478957 0.93386512011536138012 -0.66020961621541485176 0.59350502817038508496 -0.71309359163721919295 1.3020066821020339631 -0.60528573034464516756 -0.22353141901044681905 -1.3068775099224392289 1.6347952389625668435 -0.077395159923477757635 -0.13672862959259027282 0.74971898105455536676 -0.60330113481584968227 -0.53821145738262476943 -0.97511983285180614534 -0.27056472789258617651 0.92976719530822271587 0.38467581581260112955 0.13681266527339663863 -1.5399421662479604311 -0.63246179343558794894 -0.82172335461254442102 -0.3624572961795302084 0.82950981227245201843 0.30203441751906529023 1.3647062717938229781 0.18485418857996513409 0.54576973274016638005 1.1689019220858825054 0.15896771289071226496 -0.74004108537905144427 0.66783221135753123576 0.76191089023162628102 -1.1180324792868652217 0.12374474617488501194 -0.06213070557116895376 -0.75354114910479808032 -0.54252419957177400178 0.35882833096475225121 0.99412857205276816686 1.780793635451114465 -1.2020406973091803948 0.83664700730524810268;1.1405537940504912875 0.24617144182135769492 -0.42905201288410804716 -0.21772472561400690871 0.40520892589490292712 -0.27853914529921364185 0.79686650356233246217 0.52458070702401460306 0.73073179469314053502 1.4340330738936439836 -1.1938874549999549668 -0.1651422850433756917 -0.55129310404646336696 0.26219258183158078435 0.90568958948803712783 -0.64530420059297921576 0.91787785731005866463 -1.8525586040844457258 0.24504370781616766073 -0.63177964283922494193 -0.26066200916949466837 -0.46683900734895028561 -0.405521108212395065 0.75793558837641816783 -0.41035643153284495632 -0.091462625177483464212 0.80684303604083928985 -1.3001239708819829488 0.73220225191918475449 0.72436763847470542199 0.40600845669767959834 0.003287670959490901143 2.029315657046671717 0.14552968442631161738 -0.48449432547580262298 1.3249596140105792674 0.81641054481388719566 -0.19305015526208268994 0.11115515025350795886 -0.56842888607107655563 -1.2365390921263146318 0.68222427283056574776 0.38287430452720638829 -0.012349465226240544102 -0.33431781869745358371 -0.87981921937761542463 0.32884113065342762683 0.17646012066534647045 0.4704500578723435078 -1.5404420981901147947;1.7949199554005945689 -1.4223088658461373601 0.93001332618473975256 1.2693703116329211333 0.96082188048428496252 -0.0489987925978901534 1.299319743812586303 0.78755881726593202075 0.7512702428525884768 0.95554526522056792981 1.7441963523914914003 -0.62068108902019092366 -1.0480386506840295713 -0.68777851293533698307 0.40874415740917752204 0.77153166450584753644 1.4268618732179119135 0.024153932945499174967 -0.070244136588787184361 -0.7782930992691737826 0.13947459189344901809 -0.99633474426682266945 -2.4829459409472067755 0.66060739781481492283 -0.4914233809147524612 0.30975513095280737819 1.6422114179230995479 1.0788370468771093513 -0.03532398553018159526 1.1974341859834896074 -0.18170588402117532345 -0.58345642090644056488 -0.75451680057749448416 -0.18178493615570168185 -0.32266620534690892974 1.3408563738266914278 0.58241221110261798266 -0.38618716879914477547 -0.68175120468620498126 1.0900215121578336053 -0.23870452054496721361 -1.0864712067538708773 -0.11972552502946369468 -0.4456314781494270516 0.18054141437074622267 0.61095684579334186282 -0.13527629105144509114 2.5986156276392127218 0.91837792958243635866 0.65544634561978953879;-0.75948409682339135252 1.1693315618006887568 -0.23697112271542206119 0.022587675884402778209 0.88304836094247207701 -0.4477130087032570871 -0.2962356228926096291 -0.432914690067295993 0.07159644616014966545 -1.0476138589811987423 -0.14870105527101726284 -0.39766835340128808829 -0.52380385290037745349 0.42660496764853533813 -3.4085598046222602697 -0.5069396524494186318 -0.35118696609723304425 1.1463121663845152742 1.2557996530440465044 -0.084062940127284768721 -0.28645568848527708239 0.065569007485164018667 1.3480572429632076137 -0.47735659019813703186 -0.14784083193603819728 -1.0390902624551885403 0.122851520026665606 0.99106942778226070345 1.0848357142364162264 0.18650057321654825437 -0.044250078550855886927 -0.81378588499209392193 0.62983296054937054631 -0.70599238806409503333 -0.43912367911122551778 -1.2622727630789842834 -0.29348179541636765233 -0.28935650817199493057 -0.45693160445923269863 -1.4255291842174750983 -0.40916219852486873654 0.98257690549267573399 0.85380401970186681204 0.34573245581912520619 1.573467309653556967 0.19100627757208182844 -0.58700746400451664364 0.44951971405969809448 -1.8425217186158788785 -0.11753866422379867507;-0.43299837411436387091 -0.29432720924582939093 -0.59290855225527749894 0.64215555799615642307 0.57590129883369955976 -0.29684185420517744669 -1.2945332273372389675 -0.13357325878693232513 -0.72518504665972771672 1.3374094959621281031 0.218883939581073661 2.058424675666931325 -0.29012533476738150418 -0.35183900180458710372 2.7216709932626419466 1.5038690897535285096 1.0374693200195455045 -1.3897627639475271799 0.082703687915264348374 1.9333167619614499699 -2.2652076885886089919 0.65313059269350215441 -0.26648511080086645375 0.19225013044665595352 -1.3424001815311967789 0.21797853824541088552 0.030632837538323597071 0.1445559544026789045 -0.22422521032445566491 -2.1366494468488639313 -0.005081596315597003248 0.46256180714263900322 -0.1227022614601674666 0.68944195055840162834 1.0071401388293148571 -1.2194957835581705652 -0.3551208202973635264 0.38074803611632634937 0.4772991411039450016 0.057429997286817094371 0.10016692832892779008 0.55268007287281906148 0.1398977178524883902 -0.43312335927035267025 0.77464941447447843714 -0.051682913074356538752 -0.38579828722843645394 0.31488682629491981935 -0.31732822597789595021 0.25008610939981623655;-1.376663098243022576 1.857945135235807399 -0.56768808322573816039 0.61720990646795437229 -0.10270878187649970514 -0.74581004393605887515 -2.0876217031429122883 0.1743692982134315006 -1.1722374010939238254 -0.31520157355854122594 -1.6897861288538043034 -1.381832048913841815 -0.85960521059204675343 0.22488931714503543335 -0.16771164282533268519 -1.6563698014330294761 -0.10372966574598854739 0.90291072835544661235 0.2837270111017796137 0.77710097793665666721 0.15722700252609816962 0.42514823936102996704 0.50979358794181328651 -0.83254294832856345909 -1.1574561416250683799 -0.46589011448944256388 0.99539307720227421239 -0.34239635209995922249 -0.53466094258931329275 0.78886992554056689642 -0.79144397044925030027 0.60696564318692569628 -0.69388144665973572334 -0.38090477129111427468 0.77372715220371146572 0.59319340081052385205 0.95026215800406887979 0.29395805684966841431 -0.018776865516312864213 -0.58275577252073651469 -0.97102294703163671841 0.55714522764885909822 0.75248996273522261724 -0.089332883052035794158 -0.82222111732069091961 0.40178144789899167266 -0.15351922425720357368 2.3708296222082476667 0.18465457465514636959 -0.6234533616987529836;0.41066444309703842297 -0.74048007448534058916 0.98882942139466878384 1.214684212226817106 -0.68271264359114525178 0.12856122887750873196 2.2440367133316359016 -5.4869775342491740669e-05 1.2995174142876178003 -1.2090497348106026276 0.49789175211361569318 2.314612157701969597 0.64997514655039978493 0.72903274462276457246 1.4773729623220412943 2.3453744437583812221 -0.4557921767637798105 1.5217610821725560122 0.46121187286639858671 -0.79060388460021602253 1.0481286665656226464 -1.8741641760530822758 -0.49034137794184579073 0.88984227213410072022 -0.38664667510872269274 0.07761945713063253538 -0.64234592407137491854 0.75600834174899944617 0.97632559429610266122 0.06246541273542565581 0.40073924528657245414 -0.97893947320921415045 -1.8725446082341883347 -0.87075986139497918437 -1.2764840738505536244 -0.21675995125710562084 0.092364127978180166068 -0.053784820876069040774 0.29598061612608006499 0.9132621830978239208 2.5450528794374220887 1.6287971135844154791 -0.33252999711241032488 -1.8485575579416122505 -1.3208155109619905687 0.96554996748157195796 0.85329528869468440622 -3.1606772611176912058 1.1485442171395028321 -0.77051529678647479038];

% ===== SIMULATION ========

% Dimensions
Q = size(x1,2); % samples

% Input 1
xp1 = mapminmax_apply(x1,x1_step1_gain,x1_step1_xoffset,x1_step1_ymin);

% Layer 1
a1 = tansig_apply(repmat(b1,1,Q) + IW1_1*xp1);

% Layer 2
a2 = softmax_apply(repmat(b2,1,Q) + LW2_1*a1);

% Output 1
y1 = a2;
end

% ===== MODULE FUNCTIONS ========

% Map Minimum and Maximum Input Processing Function
function y = mapminmax_apply(x,settings_gain,settings_xoffset,settings_ymin)
y = bsxfun(@minus,x,settings_xoffset);
y = bsxfun(@times,y,settings_gain);
y = bsxfun(@plus,y,settings_ymin);
end

% Competitive Soft Transfer Function
function a = softmax_apply(n)
nmax = max(n,[],1);
n = bsxfun(@minus,n,nmax);
numer = exp(n);
denom = sum(numer,1);
denom(denom == 0) = 1;
a = bsxfun(@rdivide,numer,denom);
end

% Sigmoid Symmetric Transfer Function
function a = tansig_apply(n)
a = 2 ./ (1 + exp(-2*n)) - 1;
end
